<?xml version="1.0"?>
<opencv_storage>
<stage5>
  <maxWeakCount>16</maxWeakCount>
  <stageThreshold>-8.5552406311035156e-01</stageThreshold>
  <weakClassifiers>
    <_>
      <internalNodes>
        0 -1 4963 -3.6097146221436560e-04</internalNodes>
      <leafValues>
        -6.7032968997955322e-01 7.2454041242599487e-01</leafValues></_>
    <_>
      <internalNodes>
        0 -1 93290 -8.4514496847987175e-03</internalNodes>
      <leafValues>
        7.2619336843490601e-01 -2.8681573271751404e-01</leafValues></_>
    <_>
      <internalNodes>
        0 -1 3 2.0260080418665893e-05</internalNodes>
      <leafValues>
        -5.9976178407669067e-01 3.8018742203712463e-01</leafValues></_>
    <_>
      <internalNodes>
        0 -1 275478 -2.1231373772025108e-02</internalNodes>
      <leafValues>
        6.0650092363357544e-01 -3.4176695346832275e-01</leafValues></_>
    <_>
      <internalNodes>
        0 -1 1 -3.3563713077455759e-04</internalNodes>
      <leafValues>
        3.3951562643051147e-01 -6.4991223812103271e-01</leafValues></_>
    <_>
      <internalNodes>
        0 -1 5522 -6.5888972021639347e-03</internalNodes>
      <leafValues>
        5.0274831056594849e-01 -4.9872291088104248e-01</leafValues></_>
    <_>
      <internalNodes>
        0 -1 23051 -8.9627131819725037e-04</internalNodes>
      <leafValues>
        4.4584277272224426e-01 -4.4653582572937012e-01</leafValues></_>
    <_>
      <internalNodes>
        0 -1 116307 2.3915597703307867e-03</internalNodes>
      <leafValues>
        2.2455455362796783e-01 -9.0104681253433228e-01</leafValues></_>
    <_>
      <internalNodes>
        0 -1 769711 -2.3394057061523199e-03</internalNodes>
      <leafValues>
        8.1918799877166748e-01 -2.4564756453037262e-01</leafValues></_>
    <_>
      <internalNodes>
        0 -1 769065 4.0852227248251438e-03</internalNodes>
      <leafValues>
        -2.9667177796363831e-01 7.9119795560836792e-01</leafValues></_>
    <_>
      <internalNodes>
        0 -1 199981 7.0184106007218361e-03</internalNodes>
      <leafValues>
        -1.5393137931823730e-01 7.9208397865295410e-01</leafValues></_>
    <_>
      <internalNodes>
        0 -1 195754 -6.7716236226260662e-03</internalNodes>
      <leafValues>
        7.0319086313247681e-01 -1.9238832592964172e-01</leafValues></_>
    <_>
      <internalNodes>
        0 -1 4963 6.2470918055623770e-04</internalNodes>
      <leafValues>
        2.0830653607845306e-01 -8.7320721149444580e-01</leafValues></_>
    <_>
      <internalNodes>
        0 -1 720029 1.5646335668861866e-03</internalNodes>
      <leafValues>
        -2.3727978765964508e-01 7.4849432706832886e-01</leafValues></_>
    <_>
      <internalNodes>
        0 -1 720029 -1.0127129498869181e-03</internalNodes>
      <leafValues>
        7.7154970169067383e-01 -2.3924052715301514e-01</leafValues></_>
    <_>
      <internalNodes>
        0 -1 23044 -3.0197721207514405e-04</internalNodes>
      <leafValues>
        -9.1957294940948486e-01 2.0637214183807373e-01</leafValues></_></weakClassifiers></stage5>
</opencv_storage>
