<?xml version="1.0"?>
<opencv_storage>
<stage9>
  <maxWeakCount>21</maxWeakCount>
  <stageThreshold>-1.0345239639282227e+00</stageThreshold>
  <weakClassifiers>
    <_>
      <internalNodes>
        0 -1 271517 -1.5926033956930041e-03</internalNodes>
      <leafValues>
        7.7763974666595459e-01 -4.2500001192092896e-01</leafValues></_>
    <_>
      <internalNodes>
        0 -1 287081 -2.5148505344986916e-02</internalNodes>
      <leafValues>
        7.7243959903717041e-01 -1.8122112751007080e-01</leafValues></_>
    <_>
      <internalNodes>
        0 -1 23044 3.7844907637918368e-05</internalNodes>
      <leafValues>
        3.6212408542633057e-01 -5.1165711879730225e-01</leafValues></_>
    <_>
      <internalNodes>
        0 -1 734424 2.9047224670648575e-03</internalNodes>
      <leafValues>
        -2.5349372625350952e-01 6.5547055006027222e-01</leafValues></_>
    <_>
      <internalNodes>
        0 -1 92486 -4.5790923759341240e-03</internalNodes>
      <leafValues>
        6.8355095386505127e-01 -2.7561560273170471e-01</leafValues></_>
    <_>
      <internalNodes>
        0 -1 600336 2.5637098588049412e-04</internalNodes>
      <leafValues>
        2.6263627409934998e-01 -6.7345792055130005e-01</leafValues></_>
    <_>
      <internalNodes>
        0 -1 746228 -4.8376265913248062e-03</internalNodes>
      <leafValues>
        7.7155119180679321e-01 -2.0267961919307709e-01</leafValues></_>
    <_>
      <internalNodes>
        0 -1 727152 -2.5115730240941048e-03</internalNodes>
      <leafValues>
        7.0944899320602417e-01 -2.0645196735858917e-01</leafValues></_>
    <_>
      <internalNodes>
        0 -1 618632 6.8021420156583190e-04</internalNodes>
      <leafValues>
        2.1865147352218628e-01 -8.1104004383087158e-01</leafValues></_>
    <_>
      <internalNodes>
        0 -1 711786 3.2012881711125374e-03</internalNodes>
      <leafValues>
        -2.7013966441154480e-01 5.6441187858581543e-01</leafValues></_>
    <_>
      <internalNodes>
        0 -1 322870 3.6852241028100252e-03</internalNodes>
      <leafValues>
        -2.2282519936561584e-01 6.1936330795288086e-01</leafValues></_>
    <_>
      <internalNodes>
        0 -1 23602 -1.4162695151753724e-04</internalNodes>
      <leafValues>
        3.2150897383689880e-01 -4.8517796397209167e-01</leafValues></_>
    <_>
      <internalNodes>
        0 -1 96022 -1.3028906658291817e-02</internalNodes>
      <leafValues>
        7.3034036159515381e-01 -2.0751155912876129e-01</leafValues></_>
    <_>
      <internalNodes>
        0 -1 56394 1.6484001651406288e-02</internalNodes>
      <leafValues>
        -2.0334731042385101e-01 6.6789132356643677e-01</leafValues></_>
    <_>
      <internalNodes>
        0 -1 772230 3.4714997746050358e-03</internalNodes>
      <leafValues>
        -1.7337723076343536e-01 7.6047933101654053e-01</leafValues></_>
    <_>
      <internalNodes>
        0 -1 3 7.2781660128384829e-04</internalNodes>
      <leafValues>
        1.7146082222461700e-01 -9.7022187709808350e-01</leafValues></_>
    <_>
      <internalNodes>
        0 -1 267 1.0158428631257266e-04</internalNodes>
      <leafValues>
        -6.0141366720199585e-01 2.9308432340621948e-01</leafValues></_>
    <_>
      <internalNodes>
        0 -1 3421 -5.9829917736351490e-03</internalNodes>
      <leafValues>
        3.4348767995834351e-01 -4.9391368031501770e-01</leafValues></_>
    <_>
      <internalNodes>
        0 -1 19040 3.7946304655633867e-04</internalNodes>
      <leafValues>
        1.4921219646930695e-01 -8.7029558420181274e-01</leafValues></_>
    <_>
      <internalNodes>
        0 -1 2596 -1.9080276251770556e-04</internalNodes>
      <leafValues>
        2.0698246359825134e-01 -6.4504551887512207e-01</leafValues></_>
    <_>
      <internalNodes>
        0 -1 501291 -2.7402502018958330e-03</internalNodes>
      <leafValues>
        6.9652146100997925e-01 -2.2327095270156860e-01</leafValues></_></weakClassifiers></stage9>
</opencv_storage>
